<?xml version="1.0"?>
<opencv_storage>
<cascade>
  <stageType>BOOST</stageType>
  <featureType>HAAR</featureType>
  <height>24</height>
  <width>24</width>
  <stageParams>
    <boostType>GAB</boostType>
    <minHitRate>9.9500000476837158e-01</minHitRate>
    <maxFalseAlarm>5.0000000000000000e-01</maxFalseAlarm>
    <weightTrimRate>9.4999999999999996e-01</weightTrimRate>
    <maxDepth>1</maxDepth>
    <maxWeakCount>100</maxWeakCount></stageParams>
  <featureParams>
    <maxCatCount>0</maxCatCount>
    <featSize>1</featSize>
    <mode>BASIC</mode></featureParams>
  <stageNum>11</stageNum>
  <stages>
    <!-- stage 0 -->
    <_>
      <maxWeakCount>3</maxWeakCount>
      <stageThreshold>-9.2001432180404663e-01</stageThreshold>
      <weakClassifiers>
        <_>
          <internalNodes>
            0 -1 21 -7.3592305183410645e-02</internalNodes>
          <leafValues>
            8.3999997377395630e-01 -9.2000001668930054e-01</leafValues></_>
        <_>
          <internalNodes>
            0 -1 10 -1.0693018138408661e-01</internalNodes>
          <leafValues>
            9.3609833717346191e-01 -7.8095102310180664e-01</leafValues></_>
        <_>
          <internalNodes>
            0 -1 30 3.8960099220275879e-02</internalNodes>
          <leafValues>
            -7.6034343242645264e-01 7.8093671798706055e-01</leafValues></_></weakClassifiers></_>
    <!-- stage 1 -->
    <_>
      <maxWeakCount>4</maxWeakCount>
      <stageThreshold>-7.4747920036315918e-01</stageThreshold>
      <weakClassifiers>
        <_>
          <internalNodes>
            0 -1 27 -6.8013645708560944e-02</internalNodes>
          <leafValues>
            7.1111112833023071e-01 -7.8095239400863647e-01</leafValues></_>
        <_>
          <internalNodes>
            0 -1 9 8.3843674510717392e-03</internalNodes>
          <leafValues>
            -7.8452807664871216e-01 5.9622019529342651e-01</leafValues></_>
        <_>
          <internalNodes>
            0 -1 18 -5.9907265007495880e-02</internalNodes>
          <leafValues>
            4.7233015298843384e-01 -7.3388594388961792e-01</leafValues></_>
        <_>
          <internalNodes>
            0 -1 1 2.0091507583856583e-02</internalNodes>
          <leafValues>
            -1. 3.4567111730575562e-01</leafValues></_></weakClassifiers></_>
    <!-- stage 2 -->
    <_>
      <maxWeakCount>2</maxWeakCount>
      <stageThreshold>-2.9610443115234375e-01</stageThreshold>
      <weakClassifiers>
        <_>
          <internalNodes>
            0 -1 22 1.3607501983642578e-01</internalNodes>
          <leafValues>
            -7.5000000000000000e-01 6.0869562625885010e-01</leafValues></_>
        <_>
          <internalNodes>
            0 -1 6 -1.6210809350013733e-01</internalNodes>
          <leafValues>
            -1. 4.5389556884765625e-01</leafValues></_></weakClassifiers></_>
    <!-- stage 3 -->
    <_>
      <maxWeakCount>3</maxWeakCount>
      <stageThreshold>-1.0944520235061646e+00</stageThreshold>
      <weakClassifiers>
        <_>
          <internalNodes>
            0 -1 33 -8.8327564299106598e-02</internalNodes>
          <leafValues>
            7.7777779102325439e-01 -8.0952382087707520e-01</leafValues></_>
        <_>
          <internalNodes>
            0 -1 19 -1.7187446355819702e-02</internalNodes>
          <leafValues>
            3.5109257698059082e-01 -9.2387539148330688e-01</leafValues></_>
        <_>
          <internalNodes>
            0 -1 16 5.3705949336290359e-02</internalNodes>
          <leafValues>
            -6.3602072000503540e-01 6.6141027212142944e-01</leafValues></_></weakClassifiers></_>
    <!-- stage 4 -->
    <_>
      <maxWeakCount>3</maxWeakCount>
      <stageThreshold>-8.7008810043334961e-01</stageThreshold>
      <weakClassifiers>
        <_>
          <internalNodes>
            0 -1 32 8.6900129914283752e-02</internalNodes>
          <leafValues>
            -7.3333334922790527e-01 6.0000002384185791e-01</leafValues></_>
        <_>
          <internalNodes>
            0 -1 37 4.1225459426641464e-03</internalNodes>
          <leafValues>
            -5.9656202793121338e-01 6.3360589742660522e-01</leafValues></_>
        <_>
          <internalNodes>
            0 -1 15 2.4495091289281845e-02</internalNodes>
          <leafValues>
            -7.7036064863204956e-01 5.3773546218872070e-01</leafValues></_></weakClassifiers></_>
    <!-- stage 5 -->
    <_>
      <maxWeakCount>4</maxWeakCount>
      <stageThreshold>-1.0832457542419434e+00</stageThreshold>
      <weakClassifiers>
        <_>
          <internalNodes>
            0 -1 23 -6.0531444847583771e-02</internalNodes>
          <leafValues>
            8.1250000000000000e-01 -6.4406782388687134e-01</leafValues></_>
        <_>
          <internalNodes>
            0 -1 31 4.2548859491944313e-03</internalNodes>
          <leafValues>
            -7.2207081317901611e-01 4.8875078558921814e-01</leafValues></_>
        <_>
          <internalNodes>
            0 -1 12 -1.5403728932142258e-02</internalNodes>
          <leafValues>
            7.5107252597808838e-01 -4.4974836707115173e-01</leafValues></_>
        <_>
          <internalNodes>
            0 -1 38 4.8146955668926239e-03</internalNodes>
          <leafValues>
            -4.6817967295646667e-01 7.4969309568405151e-01</leafValues></_></weakClassifiers></_>
    <!-- stage 6 -->
    <_>
      <maxWeakCount>5</maxWeakCount>
      <stageThreshold>-1.1112552881240845e+00</stageThreshold>
      <weakClassifiers>
        <_>
          <internalNodes>
            0 -1 29 -4.2049460113048553e-02</internalNodes>
          <leafValues>
            7.6119405031204224e-01 -6.4806866645812988e-01</leafValues></_>
        <_>
          <internalNodes>
            0 -1 24 -2.3720341268926859e-03</internalNodes>
          <leafValues>
            4.3436789512634277e-01 -6.5704900026321411e-01</leafValues></_>
        <_>
          <internalNodes>
            0 -1 7 -3.9045296609401703e-02</internalNodes>
          <leafValues>
            2.6948010921478271e-01 -1.</leafValues></_>
        <_>
          <internalNodes>
            0 -1 0 1.9105337560176849e-02</internalNodes>
          <leafValues>
            -6.8131726980209351e-01 3.6912944912910461e-01</leafValues></_>
        <_>
          <internalNodes>
            0 -1 2 -5.0847358070313931e-03</internalNodes>
          <leafValues>
            6.8193316459655762e-01 -4.4474712014198303e-01</leafValues></_></weakClassifiers></_>
    <!-- stage 7 -->
    <_>
      <maxWeakCount>4</maxWeakCount>
      <stageThreshold>-7.2075122594833374e-01</stageThreshold>
      <weakClassifiers>
        <_>
          <internalNodes>
            0 -1 27 -8.0416083335876465e-02</internalNodes>
          <leafValues>
            6.1538463830947876e-01 -6.6666668653488159e-01</leafValues></_>
        <_>
          <internalNodes>
            0 -1 17 -1.0190736502408981e-01</internalNodes>
          <leafValues>
            4.4419080018997192e-01 -7.4005293846130371e-01</leafValues></_>
        <_>
          <internalNodes>
            0 -1 8 -1.2051285803318024e-01</internalNodes>
          <leafValues>
            3.7972754240036011e-01 -5.6802135705947876e-01</leafValues></_>
        <_>
          <internalNodes>
            0 -1 5 -8.5148296784609556e-04</internalNodes>
          <leafValues>
            -8.0884957313537598e-01 3.0624082684516907e-01</leafValues></_></weakClassifiers></_>
    <!-- stage 8 -->
    <_>
      <maxWeakCount>3</maxWeakCount>
      <stageThreshold>-6.2671285867691040e-01</stageThreshold>
      <weakClassifiers>
        <_>
          <internalNodes>
            0 -1 20 -1.1789414286613464e-01</internalNodes>
          <leafValues>
            8.7999999523162842e-01 -5.7599997520446777e-01</leafValues></_>
        <_>
          <internalNodes>
            0 -1 36 7.1127144619822502e-03</internalNodes>
          <leafValues>
            -4.3727740645408630e-01 6.2049120664596558e-01</leafValues></_>
        <_>
          <internalNodes>
            0 -1 25 3.8499608635902405e-03</internalNodes>
          <leafValues>
            -6.0919433832168579e-01 3.8656455278396606e-01</leafValues></_></weakClassifiers></_>
    <!-- stage 9 -->
    <_>
      <maxWeakCount>4</maxWeakCount>
      <stageThreshold>-8.1564176082611084e-01</stageThreshold>
      <weakClassifiers>
        <_>
          <internalNodes>
            0 -1 28 -1.2215758115053177e-01</internalNodes>
          <leafValues>
            7.4074071645736694e-01 -5.6910568475723267e-01</leafValues></_>
        <_>
          <internalNodes>
            0 -1 35 -3.2655037939548492e-02</internalNodes>
          <leafValues>
            2.5030374526977539e-01 -9.4949054718017578e-01</leafValues></_>
        <_>
          <internalNodes>
            0 -1 4 3.0706538818776608e-03</internalNodes>
          <leafValues>
            2.9357963800430298e-01 -7.3424369096755981e-01</leafValues></_>
        <_>
          <internalNodes>
            0 -1 39 5.3322035819292068e-03</internalNodes>
          <leafValues>
            2.9182362556457520e-01 -7.9041945934295654e-01</leafValues></_></weakClassifiers></_>
    <!-- stage 10 -->
    <_>
      <maxWeakCount>6</maxWeakCount>
      <stageThreshold>-1.0596473217010498e+00</stageThreshold>
      <weakClassifiers>
        <_>
          <internalNodes>
            0 -1 26 -1.3677398860454559e-01</internalNodes>
          <leafValues>
            5.0724637508392334e-01 -5.8441555500030518e-01</leafValues></_>
        <_>
          <internalNodes>
            0 -1 11 -1.0713773965835571e-01</internalNodes>
          <leafValues>
            7.0726048946380615e-01 -4.1377520561218262e-01</leafValues></_>
        <_>
          <internalNodes>
            0 -1 14 -7.4180319905281067e-02</internalNodes>
          <leafValues>
            -5.9632474184036255e-01 3.8008651137351990e-01</leafValues></_>
        <_>
          <internalNodes>
            0 -1 3 -3.9368942379951477e-03</internalNodes>
          <leafValues>
            6.4761388301849365e-01 -3.2996666431427002e-01</leafValues></_>
        <_>
          <internalNodes>
            0 -1 34 -4.7087672282941639e-04</internalNodes>
          <leafValues>
            3.6673182249069214e-01 -6.6165167093276978e-01</leafValues></_>
        <_>
          <internalNodes>
            0 -1 13 5.7839951477944851e-03</internalNodes>
          <leafValues>
            -4.2750525474548340e-01 6.2065988779067993e-01</leafValues></_></weakClassifiers></_></stages>
  <features>
    <_>
      <rects>
        <_>
          0 1 14 6 -1.</_>
        <_>
          0 1 7 3 2.</_>
        <_>
          7 4 7 3 2.</_></rects>
      <tilted>0</tilted></_>
    <_>
      <rects>
        <_>
          0 3 16 7 -1.</_>
        <_>
          8 3 8 7 2.</_></rects>
      <tilted>0</tilted></_>
    <_>
      <rects>
        <_>
          0 5 2 17 -1.</_>
        <_>
          1 5 1 17 2.</_></rects>
      <tilted>0</tilted></_>
    <_>
      <rects>
        <_>
          0 11 2 10 -1.</_>
        <_>
          1 11 1 10 2.</_></rects>
      <tilted>0</tilted></_>
    <_>
      <rects>
        <_>
          0 12 1 12 -1.</_>
        <_>
          0 18 1 6 2.</_></rects>
      <tilted>0</tilted></_>
    <_>
      <rects>
        <_>
          0 18 4 6 -1.</_>
        <_>
          0 21 4 3 2.</_></rects>
      <tilted>0</tilted></_>
    <_>
      <rects>
        <_>
          1 16 12 6 -1.</_>
        <_>
          1 18 12 2 2.</_></rects>
      <tilted>0</tilted></_>
    <_>
      <rects>
        <_>
          1 18 18 2 -1.</_>
        <_>
          7 18 6 2 2.</_></rects>
      <tilted>0</tilted></_>
    <_>
      <rects>
        <_>
          2 4 12 20 -1.</_>
        <_>
          2 4 6 10 2.</_>
        <_>
          8 14 6 10 2.</_></rects>
      <tilted>0</tilted></_>
    <_>
      <rects>
        <_>
          2 5 12 1 -1.</_>
        <_>
          8 5 6 1 2.</_></rects>
      <tilted>0</tilted></_>
    <_>
      <rects>
        <_>
          2 5 12 16 -1.</_>
        <_>
          2 5 6 8 2.</_>
        <_>
          8 13 6 8 2.</_></rects>
      <tilted>0</tilted></_>
    <_>
      <rects>
        <_>
          3 4 8 20 -1.</_>
        <_>
          3 4 4 10 2.</_>
        <_>
          7 14 4 10 2.</_></rects>
      <tilted>0</tilted></_>
    <_>
      <rects>
        <_>
          4 5 4 12 -1.</_>
        <_>
          4 5 2 6 2.</_>
        <_>
          6 11 2 6 2.</_></rects>
      <tilted>0</tilted></_>
    <_>
      <rects>
        <_>
          6 4 10 2 -1.</_>
        <_>
          6 5 10 1 2.</_></rects>
      <tilted>0</tilted></_>
    <_>
      <rects>
        <_>
          6 11 12 4 -1.</_>
        <_>
          10 11 4 4 2.</_></rects>
      <tilted>0</tilted></_>
    <_>
      <rects>
        <_>
          6 14 15 10 -1.</_>
        <_>
          6 19 15 5 2.</_></rects>
      <tilted>0</tilted></_>
    <_>
      <rects>
        <_>
          8 0 9 8 -1.</_>
        <_>
          8 4 9 4 2.</_></rects>
      <tilted>0</tilted></_>
    <_>
      <rects>
        <_>
          8 2 16 15 -1.</_>
        <_>
          16 2 8 15 2.</_></rects>
      <tilted>0</tilted></_>
    <_>
      <rects>
        <_>
          8 4 16 5 -1.</_>
        <_>
          16 4 8 5 2.</_></rects>
      <tilted>0</tilted></_>
    <_>
      <rects>
        <_>
          8 23 12 1 -1.</_>
        <_>
          12 23 4 1 2.</_></rects>
      <tilted>0</tilted></_>
    <_>
      <rects>
        <_>
          9 5 4 14 -1.</_>
        <_>
          9 12 4 7 2.</_></rects>
      <tilted>0</tilted></_>
    <_>
      <rects>
        <_>
          10 0 12 11 -1.</_>
        <_>
          16 0 6 11 2.</_></rects>
      <tilted>0</tilted></_>
    <_>
      <rects>
        <_>
          10 4 12 18 -1.</_>
        <_>
          10 4 6 9 2.</_>
        <_>
          16 13 6 9 2.</_></rects>
      <tilted>0</tilted></_>
    <_>
      <rects>
        <_>
          10 5 2 16 -1.</_>
        <_>
          10 13 2 8 2.</_></rects>
      <tilted>0</tilted></_>
    <_>
      <rects>
        <_>
          10 10 7 2 -1.</_>
        <_>
          10 11 7 1 2.</_></rects>
      <tilted>0</tilted></_>
    <_>
      <rects>
        <_>
          11 0 1 6 -1.</_>
        <_>
          11 3 1 3 2.</_></rects>
      <tilted>0</tilted></_>
    <_>
      <rects>
        <_>
          11 4 5 14 -1.</_>
        <_>
          11 11 5 7 2.</_></rects>
      <tilted>0</tilted></_>
    <_>
      <rects>
        <_>
          11 5 3 14 -1.</_>
        <_>
          11 12 3 7 2.</_></rects>
      <tilted>0</tilted></_>
    <_>
      <rects>
        <_>
          11 5 10 7 -1.</_>
        <_>
          16 5 5 7 2.</_></rects>
      <tilted>0</tilted></_>
    <_>
      <rects>
        <_>
          11 6 3 5 -1.</_>
        <_>
          12 6 1 5 2.</_></rects>
      <tilted>0</tilted></_>
    <_>
      <rects>
        <_>
          11 6 12 12 -1.</_>
        <_>
          11 6 6 6 2.</_>
        <_>
          17 12 6 6 2.</_></rects>
      <tilted>0</tilted></_>
    <_>
      <rects>
        <_>
          12 0 2 6 -1.</_>
        <_>
          12 3 2 3 2.</_></rects>
      <tilted>0</tilted></_>
    <_>
      <rects>
        <_>
          12 4 8 18 -1.</_>
        <_>
          12 4 4 9 2.</_>
        <_>
          16 13 4 9 2.</_></rects>
      <tilted>0</tilted></_>
    <_>
      <rects>
        <_>
          12 6 2 18 -1.</_>
        <_>
          12 12 2 6 2.</_></rects>
      <tilted>0</tilted></_>
    <_>
      <rects>
        <_>
          12 10 2 2 -1.</_>
        <_>
          12 11 2 1 2.</_></rects>
      <tilted>0</tilted></_>
    <_>
      <rects>
        <_>
          12 20 6 4 -1.</_>
        <_>
          14 20 2 4 2.</_></rects>
      <tilted>0</tilted></_>
    <_>
      <rects>
        <_>
          22 3 2 18 -1.</_>
        <_>
          23 3 1 18 2.</_></rects>
      <tilted>0</tilted></_>
    <_>
      <rects>
        <_>
          22 8 2 16 -1.</_>
        <_>
          23 8 1 16 2.</_></rects>
      <tilted>0</tilted></_>
    <_>
      <rects>
        <_>
          22 10 2 10 -1.</_>
        <_>
          23 10 1 10 2.</_></rects>
      <tilted>0</tilted></_>
    <_>
      <rects>
        <_>
          23 8 1 16 -1.</_>
        <_>
          23 16 1 8 2.</_></rects>
      <tilted>0</tilted></_></features></cascade>
</opencv_storage>
