<?xml version="1.0"?>
<opencv_storage>
<stage10>
  <maxWeakCount>6</maxWeakCount>
  <stageThreshold>-1.0596473217010498e+00</stageThreshold>
  <weakClassifiers>
    <_>
      <internalNodes>
        0 -1 116814 -1.3677398860454559e-01</internalNodes>
      <leafValues>
        5.0724637508392334e-01 -5.8441555500030518e-01</leafValues></_>
    <_>
      <internalNodes>
        0 -1 41726 -1.0713773965835571e-01</internalNodes>
      <leafValues>
        7.0726048946380615e-01 -4.1377520561218262e-01</leafValues></_>
    <_>
      <internalNodes>
        0 -1 77936 -7.4180319905281067e-02</internalNodes>
      <leafValues>
        -5.9632474184036255e-01 3.8008651137351990e-01</leafValues></_>
    <_>
      <internalNodes>
        0 -1 9470 -3.9368942379951477e-03</internalNodes>
      <leafValues>
        6.4761388301849365e-01 -3.2996666431427002e-01</leafValues></_>
    <_>
      <internalNodes>
        0 -1 125795 -4.7087672282941639e-04</internalNodes>
      <leafValues>
        3.6673182249069214e-01 -6.6165167093276978e-01</leafValues></_>
    <_>
      <internalNodes>
        0 -1 74310 5.7839951477944851e-03</internalNodes>
      <leafValues>
        -4.2750525474548340e-01 6.2065988779067993e-01</leafValues></_></weakClassifiers></stage10>
</opencv_storage>
